digraph Tree {
node [shape=box] ;
0 [label="X[36] <= 0.5\ngini = 0.9\nsamples = 899\nvalue = [90, 93, 86, 90, 93, 91, 91, 88, 88, 89]"] ;
1 [label="X[42] <= 5.0\ngini = 0.551\nsamples = 143\nvalue = [89, 0, 1, 1, 2, 15, 2, 0, 1, 32]"] ;
0 -> 1 [labeldistance=2.5, labelangle=45, headlabel="True"] ;
2 [label="X[21] <= 5.5\ngini = 0.423\nsamples = 45\nvalue = [0, 0, 0, 1, 0, 12, 0, 0, 0, 32]"] ;
1 -> 2 ;
3 [label="gini = 0.0\nsamples = 12\nvalue = [0, 0, 0, 0, 0, 12, 0, 0, 0, 0]"] ;
2 -> 3 ;
4 [label="X[27] <= 1.5\ngini = 0.059\nsamples = 33\nvalue = [0, 0, 0, 1, 0, 0, 0, 0, 0, 32]"] ;
2 -> 4 ;
5 [label="gini = 0.0\nsamples = 1\nvalue = [0, 0, 0, 1, 0, 0, 0, 0, 0, 0]"] ;
4 -> 5 ;
6 [label="gini = 0.0\nsamples = 32\nvalue = [0, 0, 0, 0, 0, 0, 0, 0, 0, 32]"] ;
4 -> 6 ;
7 [label="X[37] <= 0.5\ngini = 0.173\nsamples = 98\nvalue = [89, 0, 1, 0, 2, 3, 2, 0, 1, 0]"] ;
1 -> 7 ;
8 [label="X[27] <= 8.0\ngini = 0.694\nsamples = 7\nvalue = [0, 0, 1, 0, 0, 3, 2, 0, 1, 0]"] ;
7 -> 8 ;
9 [label="gini = 0.0\nsamples = 3\nvalue = [0, 0, 0, 0, 0, 3, 0, 0, 0, 0]"] ;
8 -> 9 ;
10 [label="X[11] <= 13.5\ngini = 0.625\nsamples = 4\nvalue = [0, 0, 1, 0, 0, 0, 2, 0, 1, 0]"] ;
8 -> 10 ;
11 [label="X[6] <= 2.0\ngini = 0.5\nsamples = 2\nvalue = [0, 0, 1, 0, 0, 0, 0, 0, 1, 0]"] ;
10 -> 11 ;
12 [label="gini = 0.0\nsamples = 1\nvalue = [0, 0, 1, 0, 0, 0, 0, 0, 0, 0]"] ;
11 -> 12 ;
13 [label="gini = 0.0\nsamples = 1\nvalue = [0, 0, 0, 0, 0, 0, 0, 0, 1, 0]"] ;
11 -> 13 ;
14 [label="gini = 0.0\nsamples = 2\nvalue = [0, 0, 0, 0, 0, 0, 2, 0, 0, 0]"] ;
10 -> 14 ;
15 [label="X[59] <= 8.0\ngini = 0.043\nsamples = 91\nvalue = [89, 0, 0, 0, 2, 0, 0, 0, 0, 0]"] ;
7 -> 15 ;
16 [label="gini = 0.0\nsamples = 2\nvalue = [0, 0, 0, 0, 2, 0, 0, 0, 0, 0]"] ;
15 -> 16 ;
17 [label="gini = 0.0\nsamples = 89\nvalue = [89, 0, 0, 0, 0, 0, 0, 0, 0, 0]"] ;
15 -> 17 ;
18 [label="X[21] <= 0.5\ngini = 0.887\nsamples = 756\nvalue = [1, 93, 85, 89, 91, 76, 89, 88, 87, 57]"] ;
0 -> 18 [labeldistance=2.5, labelangle=-45, headlabel="False"] ;
19 [label="X[42] <= 9.5\ngini = 0.746\nsamples = 234\nvalue = [0, 27, 22, 6, 19, 70, 86, 2, 2, 0]"] ;
18 -> 19 ;
20 [label="X[5] <= 6.0\ngini = 0.631\nsamples = 124\nvalue = [0, 24, 17, 6, 3, 69, 1, 2, 2, 0]"] ;
19 -> 20 ;
21 [label="X[19] <= 12.5\ngini = 0.724\nsamples = 58\nvalue = [0, 24, 17, 6, 3, 3, 1, 2, 2, 0]"] ;
20 -> 21 ;
22 [label="X[37] <= 3.0\ngini = 0.667\nsamples = 30\nvalue = [0, 1, 16, 5, 1, 3, 0, 2, 2, 0]"] ;
21 -> 22 ;
23 [label="X[61] <= 2.5\ngini = 0.283\nsamples = 19\nvalue = [0, 1, 16, 0, 0, 1, 0, 0, 1, 0]"] ;
22 -> 23 ;
24 [label="X[19] <= 6.0\ngini = 0.5\nsamples = 2\nvalue = [0, 1, 0, 0, 0, 1, 0, 0, 0, 0]"] ;
23 -> 24 ;
25 [label="gini = 0.0\nsamples = 1\nvalue = [0, 0, 0, 0, 0, 1, 0, 0, 0, 0]"] ;
24 -> 25 ;
26 [label="gini = 0.0\nsamples = 1\nvalue = [0, 1, 0, 0, 0, 0, 0, 0, 0, 0]"] ;
24 -> 26 ;
27 [label="X[13] <= 2.5\ngini = 0.111\nsamples = 17\nvalue = [0, 0, 16, 0, 0, 0, 0, 0, 1, 0]"] ;
23 -> 27 ;
28 [label="gini = 0.0\nsamples = 16\nvalue = [0, 0, 16, 0, 0, 0, 0, 0, 0, 0]"] ;
27 -> 28 ;
29 [label="gini = 0.0\nsamples = 1\nvalue = [0, 0, 0, 0, 0, 0, 0, 0, 1, 0]"] ;
27 -> 29 ;
30 [label="X[27] <= 13.5\ngini = 0.711\nsamples = 11\nvalue = [0, 0, 0, 5, 1, 2, 0, 2, 1, 0]"] ;
22 -> 30 ;
31 [label="X[60] <= 4.5\ngini = 0.64\nsamples = 5\nvalue = [0, 0, 0, 0, 1, 2, 0, 2, 0, 0]"] ;
30 -> 31 ;
32 [label="gini = 0.0\nsamples = 2\nvalue = [0, 0, 0, 0, 0, 0, 0, 2, 0, 0]"] ;
31 -> 32 ;
33 [label="X[5] <= 0.5\ngini = 0.444\nsamples = 3\nvalue = [0, 0, 0, 0, 1, 2, 0, 0, 0, 0]"] ;
31 -> 33 ;
34 [label="gini = 0.0\nsamples = 1\nvalue = [0, 0, 0, 0, 1, 0, 0, 0, 0, 0]"] ;
33 -> 34 ;
35 [label="gini = 0.0\nsamples = 2\nvalue = [0, 0, 0, 0, 0, 2, 0, 0, 0, 0]"] ;
33 -> 35 ;
36 [label="X[11] <= 14.0\ngini = 0.278\nsamples = 6\nvalue = [0, 0, 0, 5, 0, 0, 0, 0, 1, 0]"] ;
30 -> 36 ;
37 [label="gini = 0.0\nsamples = 5\nvalue = [0, 0, 0, 5, 0, 0, 0, 0, 0, 0]"] ;
36 -> 37 ;
38 [label="gini = 0.0\nsamples = 1\nvalue = [0, 0, 0, 0, 0, 0, 0, 0, 1, 0]"] ;
36 -> 38 ;
39 [label="X[46] <= 2.5\ngini = 0.316\nsamples = 28\nvalue = [0, 23, 1, 1, 2, 0, 1, 0, 0, 0]"] ;
21 -> 39 ;
40 [label="X[9] <= 5.0\ngini = 0.08\nsamples = 24\nvalue = [0, 23, 1, 0, 0, 0, 0, 0, 0, 0]"] ;
39 -> 40 ;
41 [label="gini = 0.0\nsamples = 23\nvalue = [0, 23, 0, 0, 0, 0, 0, 0, 0, 0]"] ;
40 -> 41 ;
42 [label="gini = 0.0\nsamples = 1\nvalue = [0, 0, 1, 0, 0, 0, 0, 0, 0, 0]"] ;
40 -> 42 ;
43 [label="X[52] <= 7.5\ngini = 0.625\nsamples = 4\nvalue = [0, 0, 0, 1, 2, 0, 1, 0, 0, 0]"] ;
39 -> 43 ;
44 [label="X[54] <= 6.0\ngini = 0.5\nsamples = 2\nvalue = [0, 0, 0, 1, 0, 0, 1, 0, 0, 0]"] ;
43 -> 44 ;
45 [label="gini = 0.0\nsamples = 1\nvalue = [0, 0, 0, 0, 0, 0, 1, 0, 0, 0]"] ;
44 -> 45 ;
46 [label="gini = 0.0\nsamples = 1\nvalue = [0, 0, 0, 1, 0, 0, 0, 0, 0, 0]"] ;
44 -> 46 ;
47 [label="gini = 0.0\nsamples = 2\nvalue = [0, 0, 0, 0, 2, 0, 0, 0, 0, 0]"] ;
43 -> 47 ;
48 [label="gini = 0.0\nsamples = 66\nvalue = [0, 0, 0, 0, 0, 66, 0, 0, 0, 0]"] ;
20 -> 48 ;
49 [label="X[61] <= 6.5\ngini = 0.379\nsamples = 110\nvalue = [0, 3, 5, 0, 16, 1, 85, 0, 0, 0]"] ;
19 -> 49 ;
50 [label="X[44] <= 7.5\ngini = 0.227\nsamples = 16\nvalue = [0, 1, 0, 0, 14, 1, 0, 0, 0, 0]"] ;
49 -> 50 ;
51 [label="X[34] <= 15.5\ngini = 0.5\nsamples = 2\nvalue = [0, 1, 0, 0, 0, 1, 0, 0, 0, 0]"] ;
50 -> 51 ;
52 [label="gini = 0.0\nsamples = 1\nvalue = [0, 0, 0, 0, 0, 1, 0, 0, 0, 0]"] ;
51 -> 52 ;
53 [label="gini = 0.0\nsamples = 1\nvalue = [0, 1, 0, 0, 0, 0, 0, 0, 0, 0]"] ;
51 -> 53 ;
54 [label="gini = 0.0\nsamples = 14\nvalue = [0, 0, 0, 0, 14, 0, 0, 0, 0, 0]"] ;
50 -> 54 ;
55 [label="X[20] <= 10.0\ngini = 0.179\nsamples = 94\nvalue = [0, 2, 5, 0, 2, 0, 85, 0, 0, 0]"] ;
49 -> 55 ;
56 [label="X[3] <= 3.5\ngini = 0.045\nsamples = 87\nvalue = [0, 0, 0, 0, 2, 0, 85, 0, 0, 0]"] ;
55 -> 56 ;
57 [label="gini = 0.0\nsamples = 2\nvalue = [0, 0, 0, 0, 2, 0, 0, 0, 0, 0]"] ;
56 -> 57 ;
58 [label="gini = 0.0\nsamples = 85\nvalue = [0, 0, 0, 0, 0, 0, 85, 0, 0, 0]"] ;
56 -> 58 ;
59 [label="X[3] <= 14.0\ngini = 0.408\nsamples = 7\nvalue = [0, 2, 5, 0, 0, 0, 0, 0, 0, 0]"] ;
55 -> 59 ;
60 [label="gini = 0.0\nsamples = 2\nvalue = [0, 2, 0, 0, 0, 0, 0, 0, 0, 0]"] ;
59 -> 60 ;
61 [label="gini = 0.0\nsamples = 5\nvalue = [0, 0, 5, 0, 0, 0, 0, 0, 0, 0]"] ;
59 -> 61 ;
62 [label="X[60] <= 3.5\ngini = 0.859\nsamples = 522\nvalue = [1, 66, 63, 83, 72, 6, 3, 86, 85, 57]"] ;
18 -> 62 ;
63 [label="X[26] <= 13.5\ngini = 0.296\nsamples = 78\nvalue = [0, 1, 1, 0, 7, 0, 0, 65, 1, 3]"] ;
62 -> 63 ;
64 [label="X[53] <= 7.0\ngini = 0.091\nsamples = 64\nvalue = [0, 1, 1, 0, 0, 0, 0, 61, 1, 0]"] ;
63 -> 64 ;
65 [label="X[11] <= 2.5\ngini = 0.032\nsamples = 62\nvalue = [0, 0, 0, 0, 0, 0, 0, 61, 1, 0]"] ;
64 -> 65 ;
66 [label="gini = 0.0\nsamples = 1\nvalue = [0, 0, 0, 0, 0, 0, 0, 0, 1, 0]"] ;
65 -> 66 ;
67 [label="gini = 0.0\nsamples = 61\nvalue = [0, 0, 0, 0, 0, 0, 0, 61, 0, 0]"] ;
65 -> 67 ;
68 [label="X[54] <= 2.0\ngini = 0.5\nsamples = 2\nvalue = [0, 1, 1, 0, 0, 0, 0, 0, 0, 0]"] ;
64 -> 68 ;
69 [label="gini = 0.0\nsamples = 1\nvalue = [0, 1, 0, 0, 0, 0, 0, 0, 0, 0]"] ;
68 -> 69 ;
70 [label="gini = 0.0\nsamples = 1\nvalue = [0, 0, 1, 0, 0, 0, 0, 0, 0, 0]"] ;
68 -> 70 ;
71 [label="X[4] <= 10.0\ngini = 0.622\nsamples = 14\nvalue = [0, 0, 0, 0, 7, 0, 0, 4, 0, 3]"] ;
63 -> 71 ;
72 [label="gini = 0.0\nsamples = 7\nvalue = [0, 0, 0, 0, 7, 0, 0, 0, 0, 0]"] ;
71 -> 72 ;
73 [label="X[17] <= 5.5\ngini = 0.49\nsamples = 7\nvalue = [0, 0, 0, 0, 0, 0, 0, 4, 0, 3]"] ;
71 -> 73 ;
74 [label="gini = 0.0\nsamples = 4\nvalue = [0, 0, 0, 0, 0, 0, 0, 4, 0, 0]"] ;
73 -> 74 ;
75 [label="gini = 0.0\nsamples = 3\nvalue = [0, 0, 0, 0, 0, 0, 0, 0, 0, 3]"] ;
73 -> 75 ;
76 [label="X[33] <= 4.5\ngini = 0.85\nsamples = 444\nvalue = [1, 65, 62, 83, 65, 6, 3, 21, 84, 54]"] ;
62 -> 76 ;
77 [label="X[43] <= 0.5\ngini = 0.825\nsamples = 375\nvalue = [1, 60, 62, 83, 8, 5, 0, 19, 83, 54]"] ;
76 -> 77 ;
78 [label="X[26] <= 4.5\ngini = 0.646\nsamples = 135\nvalue = [0, 10, 2, 63, 1, 4, 0, 0, 7, 48]"] ;
77 -> 78 ;
79 [label="X[19] <= 8.5\ngini = 0.239\nsamples = 69\nvalue = [0, 2, 2, 60, 0, 0, 0, 0, 2, 3]"] ;
78 -> 79 ;
80 [label="X[62] <= 13.0\ngini = 0.063\nsamples = 61\nvalue = [0, 0, 2, 59, 0, 0, 0, 0, 0, 0]"] ;
79 -> 80 ;
81 [label="gini = 0.0\nsamples = 59\nvalue = [0, 0, 0, 59, 0, 0, 0, 0, 0, 0]"] ;
80 -> 81 ;
82 [label="gini = 0.0\nsamples = 2\nvalue = [0, 0, 2, 0, 0, 0, 0, 0, 0, 0]"] ;
80 -> 82 ;
83 [label="X[36] <= 10.0\ngini = 0.719\nsamples = 8\nvalue = [0, 2, 0, 1, 0, 0, 0, 0, 2, 3]"] ;
79 -> 83 ;
84 [label="gini = 0.0\nsamples = 3\nvalue = [0, 0, 0, 0, 0, 0, 0, 0, 0, 3]"] ;
83 -> 84 ;
85 [label="X[12] <= 12.5\ngini = 0.64\nsamples = 5\nvalue = [0, 2, 0, 1, 0, 0, 0, 0, 2, 0]"] ;
83 -> 85 ;
86 [label="gini = 0.0\nsamples = 2\nvalue = [0, 0, 0, 0, 0, 0, 0, 0, 2, 0]"] ;
85 -> 86 ;
87 [label="gini = 0.444\nsamples = 3\nvalue = [0, 2, 0, 1, 0, 0, 0, 0, 0, 0]"] ;
85 -> 87 ;
88 [label="X[21] <= 10.5\ngini = 0.509\nsamples = 66\nvalue = [0, 8, 0, 3, 1, 4, 0, 0, 5, 45]"] ;
78 -> 88 ;
89 [label="X[51] <= 7.0\ngini = 0.765\nsamples = 14\nvalue = [0, 0, 0, 3, 1, 4, 0, 0, 4, 2]"] ;
88 -> 89 ;
90 [label="X[2] <= 7.0\ngini = 0.7\nsamples = 10\nvalue = [0, 0, 0, 3, 1, 0, 0, 0, 4, 2]"] ;
89 -> 90 ;
91 [label="gini = 0.32\nsamples = 5\nvalue = [0, 0, 0, 0, 1, 0, 0, 0, 4, 0]"] ;
90 -> 91 ;
92 [label="gini = 0.48\nsamples = 5\nvalue = [0, 0, 0, 3, 0, 0, 0, 0, 0, 2]"] ;
90 -> 92 ;
93 [label="gini = 0.0\nsamples = 4\nvalue = [0, 0, 0, 0, 0, 4, 0, 0, 0, 0]"] ;
89 -> 93 ;
94 [label="X[3] <= 1.5\ngini = 0.292\nsamples = 52\nvalue = [0, 8, 0, 0, 0, 0, 0, 0, 1, 43]"] ;
88 -> 94 ;
95 [label="X[13] <= 15.5\ngini = 0.346\nsamples = 9\nvalue = [0, 7, 0, 0, 0, 0, 0, 0, 0, 2]"] ;
94 -> 95 ;
96 [label="gini = 0.0\nsamples = 2\nvalue = [0, 0, 0, 0, 0, 0, 0, 0, 0, 2]"] ;
95 -> 96 ;
97 [label="gini = 0.0\nsamples = 7\nvalue = [0, 7, 0, 0, 0, 0, 0, 0, 0, 0]"] ;
95 -> 97 ;
98 [label="X[44] <= 15.5\ngini = 0.09\nsamples = 43\nvalue = [0, 1, 0, 0, 0, 0, 0, 0, 1, 41]"] ;
94 -> 98 ;
99 [label="gini = 0.046\nsamples = 42\nvalue = [0, 0, 0, 0, 0, 0, 0, 0, 1, 41]"] ;
98 -> 99 ;
100 [label="gini = 0.0\nsamples = 1\nvalue = [0, 1, 0, 0, 0, 0, 0, 0, 0, 0]"] ;
98 -> 100 ;
101 [label="X[27] <= 6.5\ngini = 0.779\nsamples = 240\nvalue = [1, 50, 60, 20, 7, 1, 0, 19, 76, 6]"] ;
77 -> 101 ;
102 [label="X[61] <= 2.0\ngini = 0.539\nsamples = 74\nvalue = [0, 0, 48, 3, 4, 0, 0, 13, 5, 1]"] ;
101 -> 102 ;
103 [label="X[5] <= 3.0\ngini = 0.394\nsamples = 17\nvalue = [0, 0, 1, 0, 2, 0, 0, 13, 1, 0]"] ;
102 -> 103 ;
104 [label="X[37] <= 8.0\ngini = 0.444\nsamples = 3\nvalue = [0, 0, 1, 0, 2, 0, 0, 0, 0, 0]"] ;
103 -> 104 ;
105 [label="gini = 0.0\nsamples = 1\nvalue = [0, 0, 1, 0, 0, 0, 0, 0, 0, 0]"] ;
104 -> 105 ;
106 [label="gini = 0.0\nsamples = 2\nvalue = [0, 0, 0, 0, 2, 0, 0, 0, 0, 0]"] ;
104 -> 106 ;
107 [label="X[12] <= 5.0\ngini = 0.133\nsamples = 14\nvalue = [0, 0, 0, 0, 0, 0, 0, 13, 1, 0]"] ;
103 -> 107 ;
108 [label="gini = 0.0\nsamples = 1\nvalue = [0, 0, 0, 0, 0, 0, 0, 0, 1, 0]"] ;
107 -> 108 ;
109 [label="gini = 0.0\nsamples = 13\nvalue = [0, 0, 0, 0, 0, 0, 0, 13, 0, 0]"] ;
107 -> 109 ;
110 [label="X[26] <= 9.0\ngini = 0.311\nsamples = 57\nvalue = [0, 0, 47, 3, 2, 0, 0, 0, 4, 1]"] ;
102 -> 110 ;
111 [label="X[46] <= 6.0\ngini = 0.117\nsamples = 48\nvalue = [0, 0, 45, 3, 0, 0, 0, 0, 0, 0]"] ;
110 -> 111 ;
112 [label="gini = 0.043\nsamples = 46\nvalue = [0, 0, 45, 1, 0, 0, 0, 0, 0, 0]"] ;
111 -> 112 ;
113 [label="gini = 0.0\nsamples = 2\nvalue = [0, 0, 0, 2, 0, 0, 0, 0, 0, 0]"] ;
111 -> 113 ;
114 [label="X[5] <= 3.0\ngini = 0.691\nsamples = 9\nvalue = [0, 0, 2, 0, 2, 0, 0, 0, 4, 1]"] ;
110 -> 114 ;
115 [label="gini = 0.64\nsamples = 5\nvalue = [0, 0, 2, 0, 2, 0, 0, 0, 0, 1]"] ;
114 -> 115 ;
116 [label="gini = 0.0\nsamples = 4\nvalue = [0, 0, 0, 0, 0, 0, 0, 0, 4, 0]"] ;
114 -> 116 ;
117 [label="X[20] <= 14.5\ngini = 0.708\nsamples = 166\nvalue = [1, 50, 12, 17, 3, 1, 0, 6, 71, 5]"] ;
101 -> 117 ;
118 [label="X[30] <= 7.5\ngini = 0.454\nsamples = 92\nvalue = [1, 2, 1, 8, 1, 1, 0, 6, 67, 5]"] ;
117 -> 118 ;
119 [label="X[35] <= 10.5\ngini = 0.38\nsamples = 86\nvalue = [1, 2, 1, 8, 1, 1, 0, 0, 67, 5]"] ;
118 -> 119 ;
120 [label="gini = 0.741\nsamples = 9\nvalue = [1, 0, 0, 3, 1, 0, 0, 0, 1, 3]"] ;
119 -> 120 ;
121 [label="gini = 0.259\nsamples = 77\nvalue = [0, 2, 1, 5, 0, 1, 0, 0, 66, 2]"] ;
119 -> 121 ;
122 [label="gini = 0.0\nsamples = 6\nvalue = [0, 0, 0, 0, 0, 0, 0, 6, 0, 0]"] ;
118 -> 122 ;
123 [label="X[10] <= 8.5\ngini = 0.539\nsamples = 74\nvalue = [0, 48, 11, 9, 2, 0, 0, 0, 4, 0]"] ;
117 -> 123 ;
124 [label="X[49] <= 2.0\ngini = 0.083\nsamples = 46\nvalue = [0, 44, 0, 0, 2, 0, 0, 0, 0, 0]"] ;
123 -> 124 ;
125 [label="gini = 0.0\nsamples = 44\nvalue = [0, 44, 0, 0, 0, 0, 0, 0, 0, 0]"] ;
124 -> 125 ;
126 [label="gini = 0.0\nsamples = 2\nvalue = [0, 0, 0, 0, 2, 0, 0, 0, 0, 0]"] ;
124 -> 126 ;
127 [label="X[27] <= 13.5\ngini = 0.702\nsamples = 28\nvalue = [0, 4, 11, 9, 0, 0, 0, 0, 4, 0]"] ;
123 -> 127 ;
128 [label="gini = 0.292\nsamples = 12\nvalue = [0, 1, 10, 0, 0, 0, 0, 0, 1, 0]"] ;
127 -> 128 ;
129 [label="gini = 0.609\nsamples = 16\nvalue = [0, 3, 1, 9, 0, 0, 0, 0, 3, 0]"] ;
127 -> 129 ;
130 [label="X[5] <= 8.5\ngini = 0.309\nsamples = 69\nvalue = [0, 5, 0, 0, 57, 1, 3, 2, 1, 0]"] ;
76 -> 130 ;
131 [label="X[44] <= 4.5\ngini = 0.127\nsamples = 60\nvalue = [0, 2, 0, 0, 56, 0, 2, 0, 0, 0]"] ;
130 -> 131 ;
132 [label="gini = 0.0\nsamples = 2\nvalue = [0, 0, 0, 0, 0, 0, 2, 0, 0, 0]"] ;
131 -> 132 ;
133 [label="X[37] <= 6.5\ngini = 0.067\nsamples = 58\nvalue = [0, 2, 0, 0, 56, 0, 0, 0, 0, 0]"] ;
131 -> 133 ;
134 [label="X[46] <= 2.0\ngini = 0.444\nsamples = 3\nvalue = [0, 2, 0, 0, 1, 0, 0, 0, 0, 0]"] ;
133 -> 134 ;
135 [label="gini = 0.0\nsamples = 2\nvalue = [0, 2, 0, 0, 0, 0, 0, 0, 0, 0]"] ;
134 -> 135 ;
136 [label="gini = 0.0\nsamples = 1\nvalue = [0, 0, 0, 0, 1, 0, 0, 0, 0, 0]"] ;
134 -> 136 ;
137 [label="gini = 0.0\nsamples = 55\nvalue = [0, 0, 0, 0, 55, 0, 0, 0, 0, 0]"] ;
133 -> 137 ;
138 [label="X[12] <= 10.5\ngini = 0.79\nsamples = 9\nvalue = [0, 3, 0, 0, 1, 1, 1, 2, 1, 0]"] ;
130 -> 138 ;
139 [label="X[52] <= 15.5\ngini = 0.72\nsamples = 5\nvalue = [0, 0, 0, 0, 0, 1, 1, 2, 1, 0]"] ;
138 -> 139 ;
140 [label="gini = 0.0\nsamples = 2\nvalue = [0, 0, 0, 0, 0, 0, 0, 2, 0, 0]"] ;
139 -> 140 ;
141 [label="X[33] <= 6.5\ngini = 0.667\nsamples = 3\nvalue = [0, 0, 0, 0, 0, 1, 1, 0, 1, 0]"] ;
139 -> 141 ;
142 [label="gini = 0.0\nsamples = 1\nvalue = [0, 0, 0, 0, 0, 1, 0, 0, 0, 0]"] ;
141 -> 142 ;
143 [label="X[36] <= 6.0\ngini = 0.5\nsamples = 2\nvalue = [0, 0, 0, 0, 0, 0, 1, 0, 1, 0]"] ;
141 -> 143 ;
144 [label="gini = 0.0\nsamples = 1\nvalue = [0, 0, 0, 0, 0, 0, 0, 0, 1, 0]"] ;
143 -> 144 ;
145 [label="gini = 0.0\nsamples = 1\nvalue = [0, 0, 0, 0, 0, 0, 1, 0, 0, 0]"] ;
143 -> 145 ;
146 [label="X[38] <= 4.5\ngini = 0.375\nsamples = 4\nvalue = [0, 3, 0, 0, 1, 0, 0, 0, 0, 0]"] ;
138 -> 146 ;
147 [label="gini = 0.0\nsamples = 3\nvalue = [0, 3, 0, 0, 0, 0, 0, 0, 0, 0]"] ;
146 -> 147 ;
148 [label="gini = 0.0\nsamples = 1\nvalue = [0, 0, 0, 0, 1, 0, 0, 0, 0, 0]"] ;
146 -> 148 ;
}